digraph Tree {
node [shape=box] ;
0 [label="fsr_med <= 0.0035\ngini = 0.4947\nsamples = 5757\nvalue = [4095, 5034]"] ;
1 [label="gini = 0.0\nsamples = 1609\nvalue = [2540, 0]"] ;
0 -> 1 [labeldistance=2.5, labelangle=45, headlabel="True"] ;
2 [label="z_mean <= 0.7284\ngini = 0.3606\nsamples = 4148\nvalue = [1555, 5034]"] ;
0 -> 2 [labeldistance=2.5, labelangle=-45, headlabel="False"] ;
3 [label="x_var <= 0.0\ngini = 0.3076\nsamples = 3048\nvalue = [919, 3921]"] ;
2 -> 3 ;
4 [label="gini = 0.186\nsamples = 144\nvalue = [190, 22]"] ;
3 -> 4 ;
5 [label="gini = 0.2654\nsamples = 2904\nvalue = [729, 3899]"] ;
3 -> 5 ;
6 [label="y_mean <= 0.1853\ngini = 0.4628\nsamples = 1100\nvalue = [636, 1113]"] ;
2 -> 6 ;
7 [label="gini = 0.1006\nsamples = 278\nvalue = [428, 24]"] ;
6 -> 7 ;
8 [label="gini = 0.2693\nsamples = 822\nvalue = [208, 1089]"] ;
6 -> 8 ;
}